<?xml version="1.0"?>
<opencv_storage>
<my_svm type_id="opencv-ml-svm">
  <svm_type>C_SVC</svm_type>
  <kernel><type>RBF</type>
    <gamma>1.5000000000000001e-04</gamma></kernel>
  <C>1.0000000000000001e-01</C>
  <term_criteria><epsilon>2.2204460492503131e-16</epsilon>
    <iterations>100</iterations></term_criteria>
  <var_all>10</var_all>
  <var_count>10</var_count>
  <class_count>2</class_count>
  <class_labels type_id="opencv-matrix">
    <rows>1</rows>
    <cols>2</cols>
    <dt>i</dt>
    <data>
      -1 1</data></class_labels>
  <sv_total>200</sv_total>
  <support_vectors>
    <_>
      1.13999999e+00 1.51999998e+00 1.53999996e+00 3.40000004e-01
      3.79999995e-01 7.30000019e-01 2.99999993e-02 6.20000005e-01
      4.30000007e-01 4.19999987e-01</_>
    <_>
      2.38000011e+00 2.20000005e+00 2.16000009e+00 5.50000012e-01
      3.79999995e-01 9.39999998e-01 2.19999999e-01 1.11000001e+00
      4.00000006e-01 4.00000006e-01</_>
    <_>
      6.60000026e-01 9.59999979e-01 9.80000019e-01 3.30000013e-01
      1.89999998e-01 5.19999981e-01 1.19999997e-01 4.60000008e-01
      3.30000013e-01 3.40000004e-01</_>
    <_>
      1.28999996e+00 1.53999996e+00 1.55999994e+00 4.30000007e-01
      2.09999993e-01 6.39999986e-01 7.00000003e-02 7.20000029e-01
      4.09999996e-01 4.30000007e-01</_>
    <_>
      1.01999998e+00 1.50999999e+00 1.50999999e+00 3.10000002e-01
      3.00000012e-01 6.10000014e-01 5.00000007e-02 7.79999971e-01
      1.70000002e-01 1.80000007e-01</_>
    <_>
      8.29999983e-01 1.01999998e+00 1.02999997e+00 3.49999994e-01
      1.50000006e-01 5.00000000e-01 1.29999995e-01 4.39999998e-01
      1.80000007e-01 1.89999998e-01</_>
    <_>
      1.05999994e+00 1.32000005e+00 1.32000005e+00 5.19999981e-01
      2.59999990e-01 7.79999971e-01 2.30000004e-01 6.60000026e-01
      4.69999999e-01 4.79999989e-01</_>
    <_>
      1.05999994e+00 1.62000000e+00 1.62000000e+00 3.70000005e-01
      3.60000014e-01 7.30000019e-01 5.99999987e-02 6.60000026e-01
      2.30000004e-01 2.39999995e-01</_>
    <_>
      6.60000026e-01 1.13000000e+00 1.16999996e+00 5.09999990e-01
      2.19999999e-01 7.20000029e-01 1.40000001e-01 5.19999981e-01
      3.40000004e-01 3.40000004e-01</_>
    <_>
      9.10000026e-01 1.38000000e+00 1.38999999e+00 5.40000021e-01
      2.89999992e-01 8.29999983e-01 1.29999995e-01 5.60000002e-01
      3.79999995e-01 3.89999986e-01</_>
    <_>
      1.04999995e+00 1.58000004e+00 1.60000002e+00 4.09999996e-01
      3.00000012e-01 7.20000029e-01 7.99999982e-02 5.79999983e-01
      2.70000011e-01 2.80000001e-01</_>
    <_>
      1.88000000e+00 2.69000006e+00 2.69000006e+00 3.30000013e-01
      6.29999995e-01 9.59999979e-01 7.00000003e-02 8.50000024e-01
      5.69999993e-01 5.50000012e-01</_>
    <_>
      1.25999999e+00 1.63000000e+00 1.65999997e+00 3.19999993e-01
      3.70000005e-01 6.99999988e-01 5.99999987e-02 5.89999974e-01
      3.60000014e-01 3.49999994e-01</_>
    <_>
      1.62000000e+00 2.47000003e+00 2.49000001e+00 7.69999981e-01
      6.00000024e-01 1.38000000e+00 2.50000000e-01 1.07000005e+00
      8.89999986e-01 8.79999995e-01</_>
    <_>
      1.79999995e+00 2.58999991e+00 2.57999992e+00 5.50000012e-01
      4.90000010e-01 1.04999995e+00 1.09999999e-01 8.29999983e-01
      6.39999986e-01 6.60000026e-01</_>
    <_>
      1.16999996e+00 1.44000006e+00 1.48000002e+00 4.30000007e-01
      1.80000007e-01 6.10000014e-01 7.00000003e-02 6.70000017e-01
      4.60000008e-01 4.69999999e-01</_>
    <_>
      1.15999997e+00 1.62000000e+00 1.62000000e+00 3.70000005e-01
      3.30000013e-01 6.99999988e-01 5.00000007e-02 7.09999979e-01
      4.39999998e-01 4.09999996e-01</_>
    <_>
      1.65999997e+00 2.85999990e+00 2.84999990e+00 9.30000007e-01
      6.89999998e-01 1.62000000e+00 2.89999992e-01 1.04999995e+00
      5.19999981e-01 5.00000000e-01</_>
    <_>
      1.79999995e+00 2.44000006e+00 2.43000007e+00 4.09999996e-01
      7.09999979e-01 1.12000000e+00 3.99999991e-02 8.70000005e-01
      4.39999998e-01 4.39999998e-01</_>
    <_>
      1.73000002e+00 2.65000010e+00 2.65000010e+00 5.89999974e-01
      5.89999974e-01 1.17999995e+00 1.40000001e-01 1.11000001e+00
      5.19999981e-01 5.09999990e-01</_>
    <_>
      1.91999996e+00 2.58999991e+00 2.56999993e+00 3.89999986e-01
      6.00000024e-01 9.90000010e-01 1.99999996e-02 9.49999988e-01
      6.39999986e-01 6.39999986e-01</_>
    <_>
      1.66999996e+00 2.72000003e+00 2.74000001e+00 6.49999976e-01
      5.79999983e-01 1.23000002e+00 1.40000001e-01 8.70000005e-01
      5.09999990e-01 4.90000010e-01</_>
    <_>
      1.11000001e+00 1.67999995e+00 1.70000005e+00 3.40000004e-01
      3.00000012e-01 6.39999986e-01 5.99999987e-02 7.20000029e-01
      4.39999998e-01 4.60000008e-01</_>
    <_>
      1.86000001e+00 2.52999997e+00 2.49000001e+00 5.00000000e-01
      4.69999999e-01 9.70000029e-01 2.99999993e-02 1.10000002e+00
      4.79999989e-01 4.90000010e-01</_>
    <_>
      8.39999974e-01 1.48000002e+00 1.49000001e+00 3.79999995e-01
      3.10000002e-01 6.80000007e-01 9.00000036e-02 6.00000024e-01
      2.80000001e-01 2.80000001e-01</_>
    <_>
      1.17999995e+00 1.39999998e+00 1.38999999e+00 4.39999998e-01
      3.00000012e-01 7.50000000e-01 1.19999997e-01 6.39999986e-01
      2.39999995e-01 2.30000004e-01</_>
    <_>
      1.07000005e+00 1.76999998e+00 1.77999997e+00 3.49999994e-01
      3.00000012e-01 6.39999986e-01 1.99999996e-02 6.60000026e-01
      3.40000004e-01 3.30000013e-01</_>
    <_>
      1.65999997e+00 2.53999996e+00 2.54999995e+00 5.19999981e-01
      5.00000000e-01 1.01999998e+00 9.00000036e-02 8.89999986e-01
      6.10000014e-01 6.29999995e-01</_>
    <_>
      2.04999995e+00 3.18000007e+00 3.15000010e+00 6.60000026e-01
      5.69999993e-01 1.23000002e+00 1.70000002e-01 1.13000000e+00
      5.69999993e-01 5.69999993e-01</_>
    <_>
      1.32000005e+00 1.60000002e+00 1.60000002e+00 3.30000013e-01
      2.80000001e-01 6.10000014e-01 1.19999997e-01 7.79999971e-01
      2.89999992e-01 2.70000011e-01</_>
    <_>
      1.65999997e+00 2.63000011e+00 2.64000010e+00 5.50000012e-01
      6.10000014e-01 1.16999996e+00 1.29999995e-01 7.79999971e-01
      7.50000000e-01 6.99999988e-01</_>
    <_>
      1.63999999e+00 2.82999992e+00 2.86999989e+00 7.30000019e-01
      6.00000024e-01 1.33000004e+00 2.00000003e-01 8.50000024e-01
      4.69999999e-01 4.19999987e-01</_>
    <_>
      1.60000002e+00 2.70000005e+00 2.72000003e+00 9.20000017e-01
      5.40000021e-01 1.47000003e+00 3.19999993e-01 1.04999995e+00
      7.09999979e-01 6.89999998e-01</_>
    <_>
      1.65999997e+00 2.53999996e+00 2.54999995e+00 5.89999974e-01
      4.00000006e-01 9.90000010e-01 5.99999987e-02 1. 6.10000014e-01
      5.89999974e-01</_>
    <_>
      1.08000004e+00 1.60000002e+00 1.60000002e+00 3.60000014e-01
      3.49999994e-01 7.20000029e-01 7.99999982e-02 6.39999986e-01
      2.30000004e-01 2.19999999e-01</_>
    <_>
      6.99999988e-01 8.89999986e-01 8.79999995e-01 3.79999995e-01
      1.00000001e-01 4.79999989e-01 1.70000002e-01 3.40000004e-01
      1.89999998e-01 2.09999993e-01</_>
    <_>
      1.58000004e+00 2.69000006e+00 2.71000004e+00 6.00000024e-01
      5.50000012e-01 1.15999997e+00 1.59999996e-01 8.10000002e-01
      5.00000000e-01 5.09999990e-01</_>
    <_>
      2.00999999e+00 1.90999997e+00 1.88000000e+00 2.30000004e-01
      4.00000006e-01 6.29999995e-01 5.00000007e-02 8.70000005e-01
      5.09999990e-01 5.00000000e-01</_>
    <_>
      1.53999996e+00 2.58999991e+00 2.59999990e+00 8.89999986e-01
      5.50000012e-01 1.44000006e+00 3.00000012e-01 1.20000005e+00
      7.59999990e-01 7.79999971e-01</_>
    <_>
      1.03999996e+00 1.51999998e+00 1.50999999e+00 3.89999986e-01
      2.59999990e-01 6.49999976e-01 1.00000001e-01 6.70000017e-01
      3.70000005e-01 3.79999995e-01</_>
    <_>
      1.72000003e+00 2.55999994e+00 2.55999994e+00 4.69999999e-01
      6.00000024e-01 1.05999994e+00 7.99999982e-02 1.16999996e+00
      5.60000002e-01 5.69999993e-01</_>
    <_>
      9.90000010e-01 9.90000010e-01 9.80000019e-01 3.89999986e-01
      1.89999998e-01 5.79999983e-01 1.50000006e-01 4.69999999e-01
      2.59999990e-01 2.59999990e-01</_>
    <_>
      1.83000004e+00 2.36999989e+00 2.39000010e+00 2.70000011e-01
      6.29999995e-01 8.89999986e-01 2.99999993e-02 8.60000014e-01
      4.00000006e-01 3.79999995e-01</_>
    <_>
      1.88000000e+00 2.74000001e+00 2.75999999e+00 6.00000024e-01
      6.10000014e-01 1.22000003e+00 1.89999998e-01 8.79999995e-01
      7.90000021e-01 7.69999981e-01</_>
    <_>
      1.95000005e+00 2.55999994e+00 2.54999995e+00 7.40000010e-01
      3.79999995e-01 1.12000000e+00 1.59999996e-01 1.10000002e+00
      6.99999988e-01 7.30000019e-01</_>
    <_>
      1.94000006e+00 2.60999990e+00 2.56999993e+00 5.89999974e-01
      4.49999988e-01 1.03999996e+00 7.00000003e-02 1.10000002e+00
      4.69999999e-01 4.69999999e-01</_>
    <_>
      1.49000001e+00 2.77999997e+00 2.78999996e+00 8.99999976e-01
      5.19999981e-01 1.41999996e+00 2.80000001e-01 1.07000005e+00
      5.09999990e-01 5.19999981e-01</_>
    <_>
      1.82000005e+00 2.67000008e+00 2.63000011e+00 5.79999983e-01
      5.19999981e-01 1.10000002e+00 7.99999982e-02 9.70000029e-01
      3.70000005e-01 3.70000005e-01</_>
    <_>
      1.89999998e+00 2.79999995e+00 2.76999998e+00 6.70000017e-01
      6.49999976e-01 1.32000005e+00 1.50000006e-01 1.24000001e+00
      5.19999981e-01 5.09999990e-01</_>
    <_>
      1.63000000e+00 2.52999997e+00 2.52999997e+00 9.59999979e-01
      5.09999990e-01 1.47000003e+00 3.10000002e-01 1.11000001e+00
      9.30000007e-01 9.30000007e-01</_>
    <_>
      1.19000006e+00 2.43000007e+00 2.49000001e+00 6.80000007e-01
      5.69999993e-01 1.25999999e+00 1.59999996e-01 8.70000005e-01
      5.79999983e-01 5.60000002e-01</_>
    <_>
      1.11000001e+00 1.05999994e+00 1.04999995e+00 4.30000007e-01
      1.80000007e-01 6.10000014e-01 1.70000002e-01 4.69999999e-01
      2.70000011e-01 2.70000011e-01</_>
    <_>
      1.25999999e+00 1.39999998e+00 1.39999998e+00 4.30000007e-01
      3.00000012e-01 7.20000029e-01 1.29999995e-01 6.89999998e-01
      2.50000000e-01 2.30000004e-01</_>
    <_>
      1.03999996e+00 1.20000005e+00 1.21000004e+00 4.00000006e-01
      1.70000002e-01 5.60000002e-01 1.40000001e-01 6.29999995e-01
      2.50000000e-01 2.59999990e-01</_>
    <_>
      8.10000002e-01 1.16999996e+00 1.19000006e+00 3.70000005e-01
      2.09999993e-01 5.79999983e-01 1.19999997e-01 5.00000000e-01
      3.70000005e-01 3.89999986e-01</_>
    <_>
      1.01999998e+00 1.36000001e+00 1.36000001e+00 3.30000013e-01
      3.19999993e-01 6.49999976e-01 1.99999996e-02 5.50000012e-01
      4.09999996e-01 3.89999986e-01</_>
    <_>
      1.75000000e+00 2.59999990e+00 2.59999990e+00 5.19999981e-01
      4.60000008e-01 9.90000010e-01 7.99999982e-02 1.00999999e+00
      7.09999979e-01 7.09999979e-01</_>
    <_>
      1.20000005e+00 1.70000005e+00 1.74000001e+00 3.49999994e-01
      3.19999993e-01 6.70000017e-01 7.00000003e-02 8.79999995e-01
      2.19999999e-01 2.19999999e-01</_>
    <_>
      1.05999994e+00 1.46000004e+00 1.48000002e+00 3.40000004e-01
      3.00000012e-01 6.39999986e-01 7.99999982e-02 6.60000026e-01
      2.19999999e-01 2.19999999e-01</_>
    <_>
      1.71000004e+00 2.66000009e+00 2.68000007e+00 8.10000002e-01
      6.00000024e-01 1.41999996e+00 2.09999993e-01 1.12000000e+00
      7.69999981e-01 7.79999971e-01</_>
    <_>
      1.82000005e+00 2.82999992e+00 2.79999995e+00 8.99999976e-01
      7.30000019e-01 1.63000000e+00 2.80000001e-01 1.02999997e+00
      4.69999999e-01 4.39999998e-01</_>
    <_>
      9.39999998e-01 1.59000003e+00 1.61000001e+00 4.30000007e-01
      3.10000002e-01 7.40000010e-01 1.19999997e-01 6.10000014e-01
      2.89999992e-01 2.89999992e-01</_>
    <_>
      2.43000007e+00 2.50999999e+00 2.49000001e+00 6.89999998e-01
      4.90000010e-01 1.17999995e+00 2.89999992e-01 1.03999996e+00
      3.89999986e-01 4.00000006e-01</_>
    <_>
      1.27999997e+00 1.25000000e+00 1.25000000e+00 4.19999987e-01
      2.59999990e-01 6.80000007e-01 1.70000002e-01 5.79999983e-01
      3.40000004e-01 3.30000013e-01</_>
    <_>
      2.04999995e+00 2.71000004e+00 2.71000004e+00 7.69999981e-01
      5.79999983e-01 1.34000003e+00 1.70000002e-01 1.12000000e+00
      7.30000019e-01 7.50000000e-01</_>
    <_>
      1.19000006e+00 1.71000004e+00 1.72000003e+00 3.79999995e-01
      3.89999986e-01 7.69999981e-01 5.00000007e-02 6.49999976e-01
      4.79999989e-01 4.60000008e-01</_>
    <_>
      9.20000017e-01 1.37000000e+00 1.38999999e+00 5.50000012e-01
      2.59999990e-01 8.19999993e-01 1.50000006e-01 6.39999986e-01
      4.19999987e-01 4.19999987e-01</_>
    <_>
      2.31999993e+00 2.73000002e+00 2.69000006e+00 8.60000014e-01
      4.69999999e-01 1.33000004e+00 4.69999999e-01 1.20000005e+00
      6.20000005e-01 6.10000014e-01</_>
    <_>
      1.39999998e+00 1.97000003e+00 1.97000003e+00 3.30000013e-01
      3.89999986e-01 7.20000029e-01 1.99999996e-02 9.30000007e-01
      4.39999998e-01 4.60000008e-01</_>
    <_>
      1.76999998e+00 2.74000001e+00 2.76999998e+00 9.39999998e-01
      5.09999990e-01 1.45000005e+00 2.70000011e-01 9.20000017e-01
      5.40000021e-01 5.40000021e-01</_>
    <_>
      2.00999999e+00 2.76999998e+00 2.77999997e+00 7.79999971e-01
      6.49999976e-01 1.42999995e+00 1.50000006e-01 1.12000000e+00
      7.69999981e-01 7.79999971e-01</_>
    <_>
      1.40999997e+00 1.39999998e+00 1.39999998e+00 4.60000008e-01
      2.80000001e-01 7.30000019e-01 1.89999998e-01 6.20000005e-01
      2.89999992e-01 2.80000001e-01</_>
    <_>
      1.83000004e+00 2.70000005e+00 2.66000009e+00 5.79999983e-01
      4.79999989e-01 1.05999994e+00 1.29999995e-01 9.59999979e-01
      5.19999981e-01 5.29999971e-01</_>
    <_>
      9.39999998e-01 1.13999999e+00 1.13999999e+00 3.70000005e-01
      1.70000002e-01 5.40000021e-01 1.29999995e-01 5.50000012e-01
      2.09999993e-01 2.19999999e-01</_>
    <_>
      6.60000026e-01 8.99999976e-01 8.99999976e-01 3.49999994e-01
      1.00000001e-01 4.49999988e-01 1.29999995e-01 2.09999993e-01
      1.50000006e-01 1.40000001e-01</_>
    <_>
      1.59000003e+00 2.64000010e+00 2.66000009e+00 6.10000014e-01
      6.10000014e-01 1.23000002e+00 1.50000006e-01 7.59999990e-01
      5.69999993e-01 5.29999971e-01</_>
    <_>
      1.74000001e+00 2.61999989e+00 2.60999990e+00 6.00000024e-01
      4.90000010e-01 1.09000003e+00 1.50000006e-01 1. 6.20000005e-01
      6.20000005e-01</_>
    <_>
      1.80999994e+00 2.73000002e+00 2.73000002e+00 7.20000029e-01
      5.00000000e-01 1.22000003e+00 1.59999996e-01 1.03999996e+00
      5.79999983e-01 5.69999993e-01</_>
    <_>
      1.75999999e+00 2.67000008e+00 2.68000007e+00 7.90000021e-01
      6.10000014e-01 1.39999998e+00 2.19999999e-01 1.22000003e+00
      8.19999993e-01 8.19999993e-01</_>
    <_>
      1.39999998e+00 1.69000006e+00 1.72000003e+00 3.30000013e-01
      4.09999996e-01 7.40000010e-01 5.99999987e-02 6.39999986e-01
      4.19999987e-01 4.00000006e-01</_>
    <_>
      1.97000003e+00 2.63000011e+00 2.65000010e+00 8.70000005e-01
      5.09999990e-01 1.38000000e+00 1.80000007e-01 1.05999994e+00
      6.60000026e-01 6.80000007e-01</_>
    <_>
      1.21000004e+00 1.63999999e+00 1.63999999e+00 3.70000005e-01
      3.40000004e-01 7.09999979e-01 3.99999991e-02 6.60000026e-01
      5.09999990e-01 5.29999971e-01</_>
    <_>
      1.22000003e+00 1.63999999e+00 1.63999999e+00 3.19999993e-01
      3.10000002e-01 6.29999995e-01 1.99999996e-02 6.60000026e-01
      3.19999993e-01 3.19999993e-01</_>
    <_>
      2.41000009e+00 2.63000011e+00 2.55999994e+00 7.50000000e-01
      4.49999988e-01 1.21000004e+00 4.19999987e-01 1.02999997e+00
      6.60000026e-01 6.20000005e-01</_>
    <_>
      1.36000001e+00 1.92999995e+00 1.90999997e+00 3.10000002e-01
      4.00000006e-01 7.09999979e-01 5.00000007e-02 7.30000019e-01
      4.39999998e-01 4.60000008e-01</_>
    <_>
      1.20000005e+00 1.77999997e+00 1.80999994e+00 3.40000004e-01
      3.19999993e-01 6.49999976e-01 7.00000003e-02 7.59999990e-01
      4.49999988e-01 4.69999999e-01</_>
    <_>
      1.63999999e+00 2.80999994e+00 2.85999990e+00 9.10000026e-01
      5.69999993e-01 1.47000003e+00 2.19999999e-01 1.08000004e+00
      6.49999976e-01 6.60000026e-01</_>
    <_>
      1.50999999e+00 1.46000004e+00 1.48000002e+00 3.70000005e-01
      2.80000001e-01 6.49999976e-01 2.19999999e-01 7.50000000e-01
      3.89999986e-01 3.89999986e-01</_>
    <_>
      9.49999988e-01 1.29999995e+00 1.32000005e+00 5.29999971e-01
      2.59999990e-01 7.90000021e-01 2.19999999e-01 6.39999986e-01
      4.30000007e-01 4.39999998e-01</_>
    <_>
      1.20000005e+00 1.59000003e+00 1.61000001e+00 3.40000004e-01
      3.49999994e-01 6.89999998e-01 7.00000003e-02 6.29999995e-01
      3.79999995e-01 3.70000005e-01</_>
    <_>
      2.08999991e+00 2.81999993e+00 2.82999992e+00 8.10000002e-01
      5.89999974e-01 1.39999998e+00 2.00000003e-01 1.15999997e+00
      6.70000017e-01 6.80000007e-01</_>
    <_>
      1.67999995e+00 2.69000006e+00 2.71000004e+00 6.49999976e-01
      5.89999974e-01 1.24000001e+00 2.30000004e-01 9.39999998e-01
      4.79999989e-01 4.30000007e-01</_>
    <_>
      1.64999998e+00 2.51999998e+00 2.58999991e+00 5.60000002e-01
      5.79999983e-01 1.13999999e+00 1.59999996e-01 9.30000007e-01
      5.89999974e-01 6.00000024e-01</_>
    <_>
      1.76999998e+00 2.58999991e+00 2.60999990e+00 8.10000002e-01
      5.69999993e-01 1.38000000e+00 2.09999993e-01 1.05999994e+00
      7.69999981e-01 7.90000021e-01</_>
    <_>
      7.09999979e-01 1.13000000e+00 1.13999999e+00 4.00000006e-01
      1.80000007e-01 5.89999974e-01 1.19999997e-01 4.49999988e-01
      3.70000005e-01 3.89999986e-01</_>
    <_>
      1.19000006e+00 1.28999996e+00 1.29999995e+00 4.00000006e-01
      2.50000000e-01 6.49999976e-01 1.70000002e-01 6.00000024e-01
      2.30000004e-01 2.00000003e-01</_>
    <_>
      9.10000026e-01 1.34000003e+00 1.36000001e+00 5.40000021e-01
      2.59999990e-01 8.00000012e-01 2.09999993e-01 5.89999974e-01
      4.79999989e-01 4.90000010e-01</_>
    <_>
      9.49999988e-01 1.27999997e+00 1.28999996e+00 3.19999993e-01
      2.70000011e-01 5.89999974e-01 9.00000036e-02 5.40000021e-01
      1.80000007e-01 1.70000002e-01</_>
    <_>
      1.61000001e+00 2.97000003e+00 2.94000006e+00 7.69999981e-01
      7.20000029e-01 1.50000000e+00 1.50000006e-01 1.04999995e+00
      6.00000024e-01 6.00000024e-01</_>
    <_>
      1.63999999e+00 2.83999991e+00 2.85999990e+00 9.90000010e-01
      5.50000012e-01 1.53999996e+00 4.09999996e-01 1.14999998e+00
      5.79999983e-01 5.89999974e-01</_>
    <_>
      1.19000006e+00 1.52999997e+00 1.53999996e+00 3.60000014e-01
      3.40000004e-01 6.99999988e-01 1.99999996e-02 6.49999976e-01
      3.89999986e-01 3.49999994e-01</_>
    <_>
      1.05999994e+00 1.61000001e+00 1.62000000e+00 3.89999986e-01
      3.10000002e-01 6.89999998e-01 5.99999987e-02 6.29999995e-01
      3.00000012e-01 3.00000012e-01</_>
    <_>
      1.82000005e+00 2.29999995e+00 2.30999994e+00 7.59999990e-01
      4.69999999e-01 1.23000002e+00 2.59999990e-01 1.24000001e+00
      6.20000005e-01 6.49999976e-01</_>
    <_>
      1.67999995e+00 2.44000006e+00 2.47000003e+00 9.30000007e-01
      4.79999989e-01 1.41999996e+00 2.80000001e-01 1.05999994e+00
      8.29999983e-01 8.39999974e-01</_>
    <_>
      1.65999997e+00 2.60999990e+00 2.63000011e+00 6.89999998e-01
      6.29999995e-01 1.32000005e+00 2.19999999e-01 9.20000017e-01
      7.40000010e-01 7.30000019e-01</_>
    <_>
      1.05999994e+00 1.57000005e+00 1.59000003e+00 3.10000002e-01
      3.10000002e-01 6.10000014e-01 5.99999987e-02 6.80000007e-01
      3.70000005e-01 3.79999995e-01</_>
    <_>
      1.35000002e+00 1.57000005e+00 1.57000005e+00 4.00000006e-01
      3.30000013e-01 7.30000019e-01 1.29999995e-01 8.39999974e-01
      4.39999998e-01 4.69999999e-01</_>
    <_>
      1.16999996e+00 1.49000001e+00 1.50000000e+00 3.70000005e-01
      3.40000004e-01 7.09999979e-01 9.99999978e-03 6.39999986e-01
      4.09999996e-01 3.89999986e-01</_>
    <_>
      1.55999994e+00 2.35999990e+00 2.32999992e+00 7.09999979e-01
      5.19999981e-01 1.23000002e+00 2.59999990e-01 8.00000012e-01
      3.89999986e-01 4.09999996e-01</_>
    <_>
      1.72000003e+00 2.73000002e+00 2.75000000e+00 8.19999993e-01
      5.40000021e-01 1.36000001e+00 2.50000000e-01 1.00999999e+00
      6.49999976e-01 6.39999986e-01</_>
    <_>
      8.70000005e-01 1.15999997e+00 1.16999996e+00 2.59999990e-01
      2.00000003e-01 4.60000008e-01 5.00000007e-02 5.50000012e-01
      2.59999990e-01 2.70000011e-01</_>
    <_>
      1.12000000e+00 1.47000003e+00 1.47000003e+00 3.30000013e-01
      3.70000005e-01 7.09999979e-01 2.99999993e-02 6.10000014e-01
      3.19999993e-01 3.10000002e-01</_>
    <_>
      1.76999998e+00 2.72000003e+00 2.75000000e+00 6.49999976e-01
      5.89999974e-01 1.24000001e+00 2.00000003e-01 8.50000024e-01
      6.60000026e-01 6.39999986e-01</_>
    <_>
      1.14999998e+00 1.57000005e+00 1.59000003e+00 4.00000006e-01
      3.10000002e-01 6.99999988e-01 9.00000036e-02 6.80000007e-01
      3.40000004e-01 3.49999994e-01</_>
    <_>
      1.21000004e+00 1.28999996e+00 1.29999995e+00 3.19999993e-01
      2.00000003e-01 5.09999990e-01 7.99999982e-02 6.39999986e-01
      3.30000013e-01 3.40000004e-01</_>
    <_>
      1.86000001e+00 2.64000010e+00 2.66000009e+00 7.50000000e-01
      5.00000000e-01 1.24000001e+00 1.50000006e-01 8.50000024e-01
      6.00000024e-01 5.89999974e-01</_>
    <_>
      1.13999999e+00 1.53999996e+00 1.57000005e+00 3.19999993e-01
      3.60000014e-01 6.80000007e-01 5.99999987e-02 6.39999986e-01
      3.30000013e-01 3.10000002e-01</_>
    <_>
      1.11000001e+00 1.73000002e+00 1.71000004e+00 4.60000008e-01
      3.10000002e-01 7.69999981e-01 1.19999997e-01 7.09999979e-01
      3.49999994e-01 3.60000014e-01</_>
    <_>
      1.15999997e+00 1.50999999e+00 1.53999996e+00 3.19999993e-01
      3.40000004e-01 6.60000026e-01 7.00000003e-02 5.79999983e-01
      3.10000002e-01 3.10000002e-01</_>
    <_>
      1.79999995e+00 2.70000005e+00 2.69000006e+00 7.90000021e-01
      6.80000007e-01 1.47000003e+00 3.19999993e-01 9.39999998e-01
      4.69999999e-01 4.79999989e-01</_>
    <_>
      1.21000004e+00 1.50000000e+00 1.54999995e+00 4.00000006e-01
      2.89999992e-01 6.89999998e-01 7.99999982e-02 6.89999998e-01
      4.00000006e-01 4.19999987e-01</_>
    <_>
      1.77999997e+00 2.64000010e+00 2.69000006e+00 6.70000017e-01
      5.60000002e-01 1.23000002e+00 2.19999999e-01 8.79999995e-01
      5.79999983e-01 5.29999971e-01</_>
    <_>
      1.72000003e+00 2.49000001e+00 2.50999999e+00 7.30000019e-01
      5.89999974e-01 1.33000004e+00 2.70000011e-01 8.39999974e-01
      4.19999987e-01 4.39999998e-01</_>
    <_>
      1.70000005e+00 2.38000011e+00 2.36999989e+00 6.80000007e-01
      6.00000024e-01 1.27999997e+00 2.89999992e-01 8.39999974e-01
      3.89999986e-01 4.19999987e-01</_>
    <_>
      1.28999996e+00 1.64999998e+00 1.63999999e+00 4.69999999e-01
      3.40000004e-01 8.10000002e-01 1.09999999e-01 8.39999974e-01
      3.79999995e-01 3.79999995e-01</_>
    <_>
      1.03999996e+00 1.41999996e+00 1.41999996e+00 3.30000013e-01
      3.40000004e-01 6.70000017e-01 9.99999978e-03 6.00000024e-01
      3.19999993e-01 3.19999993e-01</_>
    <_>
      1.40999997e+00 2.42000008e+00 2.46000004e+00 5.69999993e-01
      6.49999976e-01 1.21000004e+00 1.40000001e-01 7.30000019e-01
      6.39999986e-01 6.10000014e-01</_>
    <_>
      1.75000000e+00 2.19000006e+00 2.21000004e+00 9.49999988e-01
      1.89999998e-01 1.13999999e+00 3.30000013e-01 1.11000001e+00
      4.60000008e-01 4.60000008e-01</_>
    <_>
      9.80000019e-01 1.41999996e+00 1.44000006e+00 3.10000002e-01
      2.80000001e-01 5.79999983e-01 7.00000003e-02 5.79999983e-01
      3.70000005e-01 3.79999995e-01</_>
    <_>
      1.58000004e+00 2.57999992e+00 2.63000011e+00 6.89999998e-01
      6.10000014e-01 1.29999995e+00 2.00000003e-01 8.10000002e-01
      6.80000007e-01 6.29999995e-01</_>
    <_>
      1.87000000e+00 2.64000010e+00 2.64000010e+00 6.70000017e-01
      5.40000021e-01 1.20000005e+00 1.19999997e-01 8.70000005e-01
      5.40000021e-01 5.40000021e-01</_>
    <_>
      1.94000006e+00 2.89000010e+00 2.85999990e+00 6.20000005e-01
      5.89999974e-01 1.22000003e+00 2.00000003e-01 1.26999998e+00
      7.09999979e-01 7.09999979e-01</_>
    <_>
      1.19000006e+00 1.54999995e+00 1.58000004e+00 4.30000007e-01
      3.49999994e-01 7.79999971e-01 1.00000001e-01 7.90000021e-01
      3.49999994e-01 3.60000014e-01</_>
    <_>
      9.59999979e-01 1.42999995e+00 1.45000005e+00 2.80000001e-01
      2.80000001e-01 5.69999993e-01 5.99999987e-02 6.00000024e-01
      3.30000013e-01 3.40000004e-01</_>
    <_>
      2.02999997e+00 3. 2.96000004e+00 5.89999974e-01 5.60000002e-01
      1.13999999e+00 1.40000001e-01 1.22000003e+00 6.70000017e-01
      6.89999998e-01</_>
    <_>
      1.91999996e+00 2.63000011e+00 2.63000011e+00 6.99999988e-01
      4.49999988e-01 1.13999999e+00 1.00000001e-01 8.60000014e-01
      5.29999971e-01 5.19999981e-01</_>
    <_>
      1.83000004e+00 2.85999990e+00 2.85999990e+00 6.00000024e-01
      6.29999995e-01 1.23000002e+00 5.99999987e-02 1.12000000e+00
      5.19999981e-01 5.19999981e-01</_>
    <_>
      1.08000004e+00 1.34000003e+00 1.35000002e+00 3.60000014e-01
      2.89999992e-01 6.49999976e-01 5.99999987e-02 6.29999995e-01
      2.89999992e-01 2.80000001e-01</_>
    <_>
      1.75999999e+00 2.75999999e+00 2.76999998e+00 6.10000014e-01
      5.60000002e-01 1.15999997e+00 7.99999982e-02 1.11000001e+00
      5.69999993e-01 5.79999983e-01</_>
    <_>
      1.69000006e+00 2.68000007e+00 2.67000008e+00 6.70000017e-01
      5.89999974e-01 1.25999999e+00 1.89999998e-01 7.40000010e-01
      6.39999986e-01 6.20000005e-01</_>
    <_>
      1.38999999e+00 1.38000000e+00 1.38999999e+00 4.00000006e-01
      2.09999993e-01 6.10000014e-01 1.00000001e-01 6.99999988e-01
      4.79999989e-01 4.90000010e-01</_>
    <_>
      1.64999998e+00 2.70000005e+00 2.72000003e+00 6.60000026e-01
      5.79999983e-01 1.23000002e+00 1.59999996e-01 1. 6.39999986e-01
      6.20000005e-01</_>
    <_>
      1.59000003e+00 2.63000011e+00 2.67000008e+00 6.80000007e-01
      5.60000002e-01 1.24000001e+00 2.00000003e-01 9.39999998e-01
      5.50000012e-01 5.00000000e-01</_>
    <_>
      1.84000003e+00 2.71000004e+00 2.74000001e+00 8.00000012e-01
      6.29999995e-01 1.42999995e+00 2.70000011e-01 8.50000024e-01
      4.69999999e-01 4.90000010e-01</_>
    <_>
      1.80999994e+00 2.59999990e+00 2.60999990e+00 7.20000029e-01
      5.29999971e-01 1.24000001e+00 1.59999996e-01 8.70000005e-01
      6.39999986e-01 6.10000014e-01</_>
    <_>
      1.95000005e+00 1.75999999e+00 1.77999997e+00 7.90000021e-01
      2.59999990e-01 1.04999995e+00 4.09999996e-01 8.29999983e-01
      5.19999981e-01 5.09999990e-01</_>
    <_>
      1.78999996e+00 2.56999993e+00 2.57999992e+00 6.99999988e-01
      5.60000002e-01 1.25999999e+00 2.39999995e-01 8.60000014e-01
      6.49999976e-01 6.49999976e-01</_>
    <_>
      1.88999999e+00 2.52999997e+00 2.52999997e+00 6.99999988e-01
      4.79999989e-01 1.17999995e+00 1.50000006e-01 1.10000002e+00
      4.90000010e-01 5.00000000e-01</_>
    <_>
      1.87000000e+00 2.82999992e+00 2.86999989e+00 6.39999986e-01
      6.29999995e-01 1.26999998e+00 1.09999999e-01 1.11000001e+00
      6.49999976e-01 6.39999986e-01</_>
    <_>
      1.19000006e+00 1.52999997e+00 1.52999997e+00 3.79999995e-01
      3.00000012e-01 6.80000007e-01 1.09999999e-01 7.09999979e-01
      3.70000005e-01 3.70000005e-01</_>
    <_>
      1.89999998e+00 2.79999995e+00 2.79999995e+00 5.89999974e-01
      6.00000024e-01 1.19000006e+00 7.00000003e-02 1.17999995e+00
      6.10000014e-01 6.10000014e-01</_>
    <_>
      1.17999995e+00 1.54999995e+00 1.55999994e+00 3.79999995e-01
      3.60000014e-01 7.40000010e-01 1.99999996e-02 6.80000007e-01
      3.79999995e-01 3.79999995e-01</_>
    <_>
      1.98000002e+00 2.84999990e+00 2.78999996e+00 6.10000014e-01
      5.40000021e-01 1.14999998e+00 1.70000002e-01 1.19000006e+00
      6.99999988e-01 7.20000029e-01</_>
    <_>
      1.72000003e+00 2.39000010e+00 2.44000006e+00 7.20000029e-01
      5.00000000e-01 1.22000003e+00 2.39999995e-01 9.90000010e-01
      7.09999979e-01 7.09999979e-01</_>
    <_>
      1.88999999e+00 2.64000010e+00 2.68000007e+00 6.60000026e-01
      5.00000000e-01 1.16999996e+00 1.29999995e-01 9.20000017e-01
      5.40000021e-01 5.40000021e-01</_>
    <_>
      1.24000001e+00 1.63000000e+00 1.63999999e+00 4.90000010e-01
      3.40000004e-01 8.29999983e-01 1.00000001e-01 6.99999988e-01
      4.30000007e-01 4.30000007e-01</_>
    <_>
      1.36000001e+00 1.48000002e+00 1.49000001e+00 4.00000006e-01
      2.70000011e-01 6.70000017e-01 1.19999997e-01 8.50000024e-01
      5.50000012e-01 5.50000012e-01</_>
    <_>
      1.16999996e+00 1.47000003e+00 1.48000002e+00 4.49999988e-01
      2.89999992e-01 7.40000010e-01 1.09999999e-01 7.09999979e-01
      3.79999995e-01 3.79999995e-01</_>
    <_>
      1.69000006e+00 2.48000002e+00 2.52999997e+00 7.50000000e-01
      5.00000000e-01 1.25999999e+00 2.39999995e-01 1.00999999e+00
      7.20000029e-01 7.09999979e-01</_>
    <_>
      1.19000006e+00 1.54999995e+00 1.57000005e+00 3.30000013e-01
      3.40000004e-01 6.70000017e-01 3.99999991e-02 7.20000029e-01
      2.80000001e-01 2.80000001e-01</_>
    <_>
      1.29999995e+00 1.61000001e+00 1.61000001e+00 4.30000007e-01
      3.40000004e-01 7.59999990e-01 1.29999995e-01 7.50000000e-01
      4.00000006e-01 4.09999996e-01</_>
    <_>
      9.70000029e-01 1.53999996e+00 1.55999994e+00 3.89999986e-01
      2.59999990e-01 6.49999976e-01 3.99999991e-02 7.50000000e-01
      3.00000012e-01 2.89999992e-01</_>
    <_>
      1.41999996e+00 2.26999998e+00 2.28999996e+00 8.39999974e-01
      5.19999981e-01 1.35000002e+00 2.50000000e-01 9.30000007e-01
      5.09999990e-01 5.29999971e-01</_>
    <_>
      1.00999999e+00 1.54999995e+00 1.60000002e+00 4.00000006e-01
      3.60000014e-01 7.50000000e-01 1.00000001e-01 7.09999979e-01
      3.70000005e-01 3.79999995e-01</_>
    <_>
      1.19000006e+00 1.61000001e+00 1.62000000e+00 4.00000006e-01
      2.80000001e-01 6.80000007e-01 1.40000001e-01 7.30000019e-01
      3.30000013e-01 3.49999994e-01</_>
    <_>
      1.23000002e+00 1.54999995e+00 1.58000004e+00 3.89999986e-01
      2.59999990e-01 6.49999976e-01 9.00000036e-02 6.99999988e-01
      3.89999986e-01 4.00000006e-01</_>
    <_>
      1.11000001e+00 1.59000003e+00 1.60000002e+00 3.70000005e-01
      2.70000011e-01 6.39999986e-01 5.99999987e-02 8.50000024e-01
      3.00000012e-01 3.10000002e-01</_>
    <_>
      1.25000000e+00 1.57000005e+00 1.55999994e+00 2.89999992e-01
      3.40000004e-01 6.29999995e-01 2.99999993e-02 6.89999998e-01
      3.79999995e-01 3.70000005e-01</_>
    <_>
      1.60000002e+00 2.43000007e+00 2.44000006e+00 7.09999979e-01
      5.69999993e-01 1.27999997e+00 2.50000000e-01 9.20000017e-01
      3.89999986e-01 4.09999996e-01</_>
    <_>
      1.73000002e+00 2.77999997e+00 2.79999995e+00 6.29999995e-01
      6.00000024e-01 1.23000002e+00 7.00000003e-02 1.07000005e+00
      5.50000012e-01 5.89999974e-01</_>
    <_>
      1.01999998e+00 1.39999998e+00 1.41999996e+00 2.89999992e-01
      2.50000000e-01 5.40000021e-01 7.00000003e-02 6.39999986e-01
      3.49999994e-01 3.60000014e-01</_>
    <_>
      1.63000000e+00 2.67000008e+00 2.69000006e+00 6.70000017e-01
      6.80000007e-01 1.34000003e+00 2.09999993e-01 8.10000002e-01
      6.60000026e-01 6.39999986e-01</_>
    <_>
      2.09999990e+00 2.97000003e+00 2.94000006e+00 5.79999983e-01
      6.10000014e-01 1.20000005e+00 1.40000001e-01 1.16999996e+00
      6.99999988e-01 7.09999979e-01</_>
    <_>
      1.60000002e+00 2.79999995e+00 2.81999993e+00 7.30000019e-01
      5.29999971e-01 1.26999998e+00 1.80000007e-01 1.01999998e+00
      5.69999993e-01 5.69999993e-01</_>
    <_>
      1.84000003e+00 2.63000011e+00 2.61999989e+00 7.50000000e-01
      6.70000017e-01 1.41999996e+00 2.89999992e-01 9.10000026e-01
      4.69999999e-01 5.09999990e-01</_>
    <_>
      1.48000002e+00 2.09999990e+00 2.14000010e+00 7.69999981e-01
      4.09999996e-01 1.17999995e+00 2.70000011e-01 7.40000010e-01
      5.40000021e-01 5.29999971e-01</_>
    <_>
      1.15999997e+00 1.51999998e+00 1.57000005e+00 4.00000006e-01
      2.89999992e-01 6.89999998e-01 7.99999982e-02 6.80000007e-01
      4.09999996e-01 4.09999996e-01</_>
    <_>
      1.14999998e+00 1.52999997e+00 1.53999996e+00 4.09999996e-01
      2.50000000e-01 6.60000026e-01 1.00000001e-01 6.80000007e-01
      3.49999994e-01 3.70000005e-01</_>
    <_>
      7.59999990e-01 1.09000003e+00 1.10000002e+00 2.50000000e-01
      1.89999998e-01 4.39999998e-01 7.00000003e-02 4.69999999e-01
      2.70000011e-01 2.80000001e-01</_>
    <_>
      1.29999995e+00 1.48000002e+00 1.50999999e+00 3.89999986e-01
      2.30000004e-01 6.20000005e-01 7.99999982e-02 6.80000007e-01
      4.00000006e-01 4.19999987e-01</_>
    <_>
      1.63999999e+00 2.70000005e+00 2.73000002e+00 7.30000019e-01
      5.40000021e-01 1.26999998e+00 2.09999993e-01 1.03999996e+00
      5.50000012e-01 5.50000012e-01</_>
    <_>
      1.62000000e+00 2.59999990e+00 2.63000011e+00 6.49999976e-01
      5.19999981e-01 1.17999995e+00 1.70000002e-01 1.05999994e+00
      4.79999989e-01 4.60000008e-01</_>
    <_>
      1.75000000e+00 2.72000003e+00 2.68000007e+00 6.00000024e-01
      5.00000000e-01 1.10000002e+00 1.80000007e-01 1.10000002e+00
      6.20000005e-01 6.29999995e-01</_>
    <_>
      1.23000002e+00 1.51999998e+00 1.50999999e+00 3.60000014e-01
      3.49999994e-01 7.09999979e-01 7.00000003e-02 6.39999986e-01
      3.70000005e-01 3.70000005e-01</_>
    <_>
      2.09999990e+00 3.16000009e+00 3.11999989e+00 6.29999995e-01
      6.00000024e-01 1.23000002e+00 1.50000006e-01 1.27999997e+00
      7.20000029e-01 7.30000019e-01</_>
    <_>
      1.04999995e+00 1.48000002e+00 1.50000000e+00 3.00000012e-01
      3.79999995e-01 6.80000007e-01 3.99999991e-02 5.60000002e-01
      2.80000001e-01 2.80000001e-01</_>
    <_>
      1.13999999e+00 1.46000004e+00 1.48000002e+00 2.80000001e-01
      3.19999993e-01 6.10000014e-01 2.99999993e-02 6.00000024e-01
      3.00000012e-01 3.00000012e-01</_>
    <_>
      1.55999994e+00 2.68000007e+00 2.68000007e+00 6.99999988e-01
      5.19999981e-01 1.21000004e+00 1.59999996e-01 1.01999998e+00
      5.79999983e-01 5.60000002e-01</_>
    <_>
      8.39999974e-01 1.25000000e+00 1.27999997e+00 3.30000013e-01
      2.70000011e-01 6.00000024e-01 9.00000036e-02 4.69999999e-01
      3.30000013e-01 3.19999993e-01</_>
    <_>
      1.11000001e+00 1.40999997e+00 1.44000006e+00 4.09999996e-01
      3.00000012e-01 7.09999979e-01 9.00000036e-02 7.09999979e-01
      3.60000014e-01 3.70000005e-01</_>
    <_>
      1.88999999e+00 2.92000008e+00 2.91000009e+00 6.00000024e-01
      5.40000021e-01 1.14999998e+00 1.19999997e-01 1.15999997e+00
      6.10000014e-01 6.20000005e-01</_>
    <_>
      1.98000002e+00 2.59999990e+00 2.60999990e+00 6.60000026e-01
      5.09999990e-01 1.17999995e+00 1.19999997e-01 8.50000024e-01
      5.79999983e-01 5.40000021e-01</_>
    <_>
      1.19000006e+00 1.54999995e+00 1.55999994e+00 3.40000004e-01
      3.60000014e-01 6.99999988e-01 1.99999996e-02 6.80000007e-01
      3.70000005e-01 3.60000014e-01</_>
    <_>
      1.13000000e+00 1.45000005e+00 1.42999995e+00 3.10000002e-01
      3.49999994e-01 6.60000026e-01 1.99999996e-02 6.10000014e-01
      3.49999994e-01 3.40000004e-01</_>
    <_>
      1.37000000e+00 1.40999997e+00 1.40999997e+00 3.49999994e-01
      2.09999993e-01 5.60000002e-01 9.00000036e-02 6.89999998e-01
      3.89999986e-01 4.09999996e-01</_>
    <_>
      7.20000029e-01 9.90000010e-01 1. 2.19999999e-01 1.80000007e-01
      4.00000006e-01 5.99999987e-02 4.90000010e-01 2.39999995e-01
      2.50000000e-01</_>
    <_>
      7.50000000e-01 1.11000001e+00 1.13000000e+00 2.19999999e-01
      2.00000003e-01 4.19999987e-01 1.99999996e-02 5.00000000e-01
      2.59999990e-01 2.59999990e-01</_>
    <_>
      1.80999994e+00 2.54999995e+00 2.58999991e+00 6.70000017e-01
      5.60000002e-01 1.23000002e+00 2.50000000e-01 8.19999993e-01
      6.29999995e-01 5.40000021e-01</_>
    <_>
      1.15999997e+00 1.41999996e+00 1.41999996e+00 3.79999995e-01
      3.40000004e-01 7.20000029e-01 5.99999987e-02 6.39999986e-01
      3.70000005e-01 3.60000014e-01</_>
    <_>
      1.84000003e+00 2.75000000e+00 2.71000004e+00 5.50000012e-01
      5.40000021e-01 1.09000003e+00 1.50000006e-01 1.13999999e+00
      6.20000005e-01 6.29999995e-01</_></support_vectors>
  <decision_functions>
    <_>
      <sv_count>200</sv_count>
      <rho>-3.3762156963318413e-04</rho>
      <alpha>
        1.0000000000000001e-01 1.0000000000000001e-01
        1.0000000000000001e-01 1.0000000000000001e-01
        1.0000000000000001e-01 1.0000000000000001e-01
        1.0000000000000001e-01 1.0000000000000001e-01
        1.0000000000000001e-01 1.0000000000000001e-01
        1.0000000000000001e-01 1.0000000000000001e-01
        1.0000000000000001e-01 1.0000000000000001e-01
        1.0000000000000001e-01 1.0000000000000001e-01
        1.0000000000000001e-01 1.0000000000000001e-01
        1.0000000000000001e-01 1.0000000000000001e-01
        1.0000000000000001e-01 1.0000000000000001e-01
        1.0000000000000001e-01 1.0000000000000001e-01
        1.0000000000000001e-01 1.0000000000000001e-01
        1.0000000000000001e-01 1.0000000000000001e-01
        1.0000000000000001e-01 1.0000000000000001e-01
        1.0000000000000001e-01 1.0000000000000001e-01
        1.0000000000000001e-01 1.0000000000000001e-01
        1.0000000000000001e-01 1.0000000000000001e-01
        1.0000000000000001e-01 1.0000000000000001e-01
        1.0000000000000001e-01 1.0000000000000001e-01
        1.0000000000000001e-01 1.0000000000000001e-01
        1.0000000000000001e-01 1.0000000000000001e-01
        1.0000000000000001e-01 1.0000000000000001e-01
        1.0000000000000001e-01 1.0000000000000001e-01
        1.0000000000000001e-01 1.0000000000000001e-01
        1.0000000000000001e-01 1.0000000000000001e-01
        1.0000000000000001e-01 1.0000000000000001e-01
        1.0000000000000001e-01 1.0000000000000001e-01
        1.0000000000000001e-01 1.0000000000000001e-01
        1.0000000000000001e-01 1.0000000000000001e-01
        1.0000000000000001e-01 1.0000000000000001e-01
        1.0000000000000001e-01 1.0000000000000001e-01
        1.0000000000000001e-01 1.0000000000000001e-01
        1.0000000000000001e-01 1.0000000000000001e-01
        1.0000000000000001e-01 1.0000000000000001e-01
        1.0000000000000001e-01 1.0000000000000001e-01
        1.0000000000000001e-01 1.0000000000000001e-01
        1.0000000000000001e-01 1.0000000000000001e-01
        1.0000000000000001e-01 1.0000000000000001e-01
        1.0000000000000001e-01 1.0000000000000001e-01
        1.0000000000000001e-01 1.0000000000000001e-01
        1.0000000000000001e-01 1.0000000000000001e-01
        1.0000000000000001e-01 1.0000000000000001e-01
        1.0000000000000001e-01 1.0000000000000001e-01
        1.0000000000000001e-01 1.0000000000000001e-01
        1.0000000000000001e-01 1.0000000000000001e-01
        1.0000000000000001e-01 1.0000000000000001e-01
        1.0000000000000001e-01 1.0000000000000001e-01
        1.0000000000000001e-01 1.0000000000000001e-01
        1.0000000000000001e-01 1.0000000000000001e-01
        -1.0000000000000001e-01 -1.0000000000000001e-01
        -1.0000000000000001e-01 -1.0000000000000001e-01
        -1.0000000000000001e-01 -1.0000000000000001e-01
        -1.0000000000000001e-01 -1.0000000000000001e-01
        -1.0000000000000001e-01 -1.0000000000000001e-01
        -1.0000000000000001e-01 -1.0000000000000001e-01
        -1.0000000000000001e-01 -1.0000000000000001e-01
        -1.0000000000000001e-01 -1.0000000000000001e-01
        -1.0000000000000001e-01 -1.0000000000000001e-01
        -1.0000000000000001e-01 -1.0000000000000001e-01
        -1.0000000000000001e-01 -1.0000000000000001e-01
        -1.0000000000000001e-01 -1.0000000000000001e-01
        -1.0000000000000001e-01 -1.0000000000000001e-01
        -1.0000000000000001e-01 -1.0000000000000001e-01
        -1.0000000000000001e-01 -1.0000000000000001e-01
        -1.0000000000000001e-01 -1.0000000000000001e-01
        -1.0000000000000001e-01 -1.0000000000000001e-01
        -1.0000000000000001e-01 -1.0000000000000001e-01
        -1.0000000000000001e-01 -1.0000000000000001e-01
        -1.0000000000000001e-01 -1.0000000000000001e-01
        -1.0000000000000001e-01 -1.0000000000000001e-01
        -1.0000000000000001e-01 -1.0000000000000001e-01
        -1.0000000000000001e-01 -1.0000000000000001e-01
        -1.0000000000000001e-01 -1.0000000000000001e-01
        -1.0000000000000001e-01 -1.0000000000000001e-01
        -1.0000000000000001e-01 -1.0000000000000001e-01
        -1.0000000000000001e-01 -1.0000000000000001e-01
        -1.0000000000000001e-01 -1.0000000000000001e-01
        -1.0000000000000001e-01 -1.0000000000000001e-01
        -1.0000000000000001e-01 -1.0000000000000001e-01
        -1.0000000000000001e-01 -1.0000000000000001e-01
        -1.0000000000000001e-01 -1.0000000000000001e-01
        -1.0000000000000001e-01 -1.0000000000000001e-01
        -1.0000000000000001e-01 -1.0000000000000001e-01
        -1.0000000000000001e-01 -1.0000000000000001e-01
        -1.0000000000000001e-01 -1.0000000000000001e-01
        -1.0000000000000001e-01 -1.0000000000000001e-01
        -1.0000000000000001e-01 -1.0000000000000001e-01
        -1.0000000000000001e-01 -1.0000000000000001e-01
        -1.0000000000000001e-01 -1.0000000000000001e-01
        -1.0000000000000001e-01 -1.0000000000000001e-01
        -1.0000000000000001e-01 -1.0000000000000001e-01
        -1.0000000000000001e-01 -1.0000000000000001e-01
        -1.0000000000000001e-01 -1.0000000000000001e-01
        -1.0000000000000001e-01 -1.0000000000000001e-01
        -1.0000000000000001e-01 -1.0000000000000001e-01
        -1.0000000000000001e-01 -1.0000000000000001e-01
        -1.0000000000000001e-01 -1.0000000000000001e-01
        -1.0000000000000001e-01 -1.0000000000000001e-01
        -1.0000000000000001e-01 -1.0000000000000001e-01</alpha>
      <index>
        0 1 2 3 4 5 6 7 8 9 10 11 12 13 14 15 16 17 18 19 20 21 22 23 24
        25 26 27 28 29 30 31 32 33 34 35 36 37 38 39 40 41 42 43 44 45
        46 47 48 49 50 51 52 53 54 55 56 57 58 59 60 61 62 63 64 65 66
        67 68 69 70 71 72 73 74 75 76 77 78 79 80 81 82 83 84 85 86 87
        88 89 90 91 92 93 94 95 96 97 98 99 100 101 102 103 104 105 106
        107 108 109 110 111 112 113 114 115 116 117 118 119 120 121 122
        123 124 125 126 127 128 129 130 131 132 133 134 135 136 137 138
        139 140 141 142 143 144 145 146 147 148 149 150 151 152 153 154
        155 156 157 158 159 160 161 162 163 164 165 166 167 168 169 170
        171 172 173 174 175 176 177 178 179 180 181 182 183 184 185 186
        187 188 189 190 191 192 193 194 195 196 197 198 199</index></_></decision_functions></my_svm>
</opencv_storage>
